<?xml version="1.0"?>
<opencv_storage>
<cascade>
  <stageType>BOOST</stageType>
  <featureType>HAAR</featureType>
  <height>20</height>
  <width>20</width>
  <stageParams>
    <boostType>GAB</boostType>
    <minHitRate>9.9500000476837158e-01</minHitRate>
    <maxFalseAlarm>5.0000000000000000e-01</maxFalseAlarm>
    <weightTrimRate>9.4999999999999996e-01</weightTrimRate>
    <maxDepth>1</maxDepth>
    <maxWeakCount>100</maxWeakCount></stageParams>
  <featureParams>
    <maxCatCount>0</maxCatCount>
    <featSize>1</featSize>
    <mode>BASIC</mode></featureParams>
  <stageNum>8</stageNum>
  <stages>
    <!-- stage 0 -->
    <_>
      <maxWeakCount>2</maxWeakCount>
      <stageThreshold>-2.5703769922256470e-01</stageThreshold>
      <weakClassifiers>
        <_>
          <internalNodes>
            0 -1 8 8.2489743828773499e-02</internalNodes>
          <leafValues>
            -9.4216865301132202e-01 8.9946526288986206e-01</leafValues></_>
        <_>
          <internalNodes>
            0 -1 19 8.9196523185819387e-04</internalNodes>
          <leafValues>
            -9.2587780952453613e-01 6.8513095378875732e-01</leafValues></_></weakClassifiers></_>
    <!-- stage 1 -->
    <_>
      <maxWeakCount>4</maxWeakCount>
      <stageThreshold>-6.6788154840469360e-01</stageThreshold>
      <weakClassifiers>
        <_>
          <internalNodes>
            0 -1 8 1.1347973346710205e-01</internalNodes>
          <leafValues>
            -7.5178998708724976e-01 8.2169711589813232e-01</leafValues></_>
        <_>
          <internalNodes>
            0 -1 24 -9.4613619148731232e-04</internalNodes>
          <leafValues>
            5.5793559551239014e-01 -7.7005243301391602e-01</leafValues></_>
        <_>
          <internalNodes>
            0 -1 20 -9.5592331490479410e-05</internalNodes>
          <leafValues>
            -9.5478922128677368e-01 3.6114722490310669e-01</leafValues></_>
        <_>
          <internalNodes>
            0 -1 20 2.9561822884716094e-04</internalNodes>
          <leafValues>
            4.9281364679336548e-01 -9.7630512714385986e-01</leafValues></_></weakClassifiers></_>
    <!-- stage 2 -->
    <_>
      <maxWeakCount>4</maxWeakCount>
      <stageThreshold>-4.8327806591987610e-01</stageThreshold>
      <weakClassifiers>
        <_>
          <internalNodes>
            0 -1 13 -3.6520790308713913e-04</internalNodes>
          <leafValues>
            -9.4890511035919189e-01 6.5985131263732910e-01</leafValues></_>
        <_>
          <internalNodes>
            0 -1 0 1.0397493839263916e-02</internalNodes>
          <leafValues>
            -5.5134296417236328e-01 6.5319663286209106e-01</leafValues></_>
        <_>
          <internalNodes>
            0 -1 13 6.3734513241797686e-04</internalNodes>
          <leafValues>
            3.7255012989044189e-01 -9.0797185897827148e-01</leafValues></_>
        <_>
          <internalNodes>
            0 -1 22 2.9491391032934189e-03</internalNodes>
          <leafValues>
            -8.6534065008163452e-01 3.1618544459342957e-01</leafValues></_></weakClassifiers></_>
    <!-- stage 3 -->
    <_>
      <maxWeakCount>4</maxWeakCount>
      <stageThreshold>1.7670979723334312e-02</stageThreshold>
      <weakClassifiers>
        <_>
          <internalNodes>
            0 -1 9 8.7838312610983849e-03</internalNodes>
          <leafValues>
            -9.2125982046127319e-01 6.2408757209777832e-01</leafValues></_>
        <_>
          <internalNodes>
            0 -1 14 8.2861304690595716e-05</internalNodes>
          <leafValues>
            3.4612736105918884e-01 -9.2551296949386597e-01</leafValues></_>
        <_>
          <internalNodes>
            0 -1 14 -7.2884118708316237e-05</internalNodes>
          <leafValues>
            -9.5598560571670532e-01 3.5329943895339966e-01</leafValues></_>
        <_>
          <internalNodes>
            0 -1 16 5.5277133360505104e-03</internalNodes>
          <leafValues>
            -9.2495822906494141e-01 2.3950400948524475e-01</leafValues></_></weakClassifiers></_>
    <!-- stage 4 -->
    <_>
      <maxWeakCount>4</maxWeakCount>
      <stageThreshold>-8.6995768547058105e-01</stageThreshold>
      <weakClassifiers>
        <_>
          <internalNodes>
            0 -1 18 1.1238110164413229e-04</internalNodes>
          <leafValues>
            5.8178603649139404e-01 -9.4977170228958130e-01</leafValues></_>
        <_>
          <internalNodes>
            0 -1 19 1.2302767718210816e-03</internalNodes>
          <leafValues>
            -8.6932992935180664e-01 4.1881033778190613e-01</leafValues></_>
        <_>
          <internalNodes>
            0 -1 23 4.2505140299908817e-04</internalNodes>
          <leafValues>
            -8.3441424369812012e-01 3.0639064311981201e-01</leafValues></_>
        <_>
          <internalNodes>
            0 -1 15 2.9077433282509446e-04</internalNodes>
          <leafValues>
            2.5200054049491882e-01 -9.3267822265625000e-01</leafValues></_></weakClassifiers></_>
    <!-- stage 5 -->
    <_>
      <maxWeakCount>6</maxWeakCount>
      <stageThreshold>-6.2579375505447388e-01</stageThreshold>
      <weakClassifiers>
        <_>
          <internalNodes>
            0 -1 11 5.8905885089188814e-04</internalNodes>
          <leafValues>
            -8.3073496818542480e-01 5.6552642583847046e-01</leafValues></_>
        <_>
          <internalNodes>
            0 -1 7 -4.6347081661224365e-03</internalNodes>
          <leafValues>
            3.2345864176750183e-01 -8.3898645639419556e-01</leafValues></_>
        <_>
          <internalNodes>
            0 -1 12 1.5185330084932502e-05</internalNodes>
          <leafValues>
            -8.7520360946655273e-01 2.3254987597465515e-01</leafValues></_>
        <_>
          <internalNodes>
            0 -1 23 6.5908406395465136e-04</internalNodes>
          <leafValues>
            -7.5627261400222778e-01 3.0600965023040771e-01</leafValues></_>
        <_>
          <internalNodes>
            0 -1 4 -5.7251396356150508e-05</internalNodes>
          <leafValues>
            -9.0135401487350464e-01 2.2153937816619873e-01</leafValues></_>
        <_>
          <internalNodes>
            0 -1 5 -6.1258273490238935e-05</internalNodes>
          <leafValues>
            -9.6425533294677734e-01 1.8366590142250061e-01</leafValues></_></weakClassifiers></_>
    <!-- stage 6 -->
    <_>
      <maxWeakCount>5</maxWeakCount>
      <stageThreshold>-5.4273355007171631e-01</stageThreshold>
      <weakClassifiers>
        <_>
          <internalNodes>
            0 -1 6 -1.2672561570070684e-04</internalNodes>
          <leafValues>
            -9.4565218687057495e-01 5.3516292572021484e-01</leafValues></_>
        <_>
          <internalNodes>
            0 -1 17 6.5984379034489393e-05</internalNodes>
          <leafValues>
            2.9423901438713074e-01 -9.1035264730453491e-01</leafValues></_>
        <_>
          <internalNodes>
            0 -1 0 1.6452584415674210e-02</internalNodes>
          <leafValues>
            -4.6761325001716614e-01 5.9739911556243896e-01</leafValues></_>
        <_>
          <internalNodes>
            0 -1 10 2.4227927497122437e-04</internalNodes>
          <leafValues>
            -7.0093697309494019e-01 3.4526991844177246e-01</leafValues></_>
        <_>
          <internalNodes>
            0 -1 21 6.1779559473507106e-05</internalNodes>
          <leafValues>
            2.3102295398712158e-01 -8.9129775762557983e-01</leafValues></_></weakClassifiers></_>
    <!-- stage 7 -->
    <_>
      <maxWeakCount>5</maxWeakCount>
      <stageThreshold>-4.5637783408164978e-01</stageThreshold>
      <weakClassifiers>
        <_>
          <internalNodes>
            0 -1 21 -1.5193878789432347e-04</internalNodes>
          <leafValues>
            -7.1809524297714233e-01 5.8712643384933472e-01</leafValues></_>
        <_>
          <internalNodes>
            0 -1 1 2.8957847971469164e-03</internalNodes>
          <leafValues>
            -8.9161437749862671e-01 2.9574349522590637e-01</leafValues></_>
        <_>
          <internalNodes>
            0 -1 3 2.0109496836084872e-04</internalNodes>
          <leafValues>
            2.3320236802101135e-01 -9.0252059698104858e-01</leafValues></_>
        <_>
          <internalNodes>
            0 -1 23 4.6955645666457713e-04</internalNodes>
          <leafValues>
            -8.1364637613296509e-01 2.3102845251560211e-01</leafValues></_>
        <_>
          <internalNodes>
            0 -1 2 1.1182648129761219e-02</internalNodes>
          <leafValues>
            -3.9347425103187561e-01 5.4641789197921753e-01</leafValues></_></weakClassifiers></_></stages>
  <features>
    <_>
      <rects>
        <_>
          0 1 2 19 -1.</_>
        <_>
          1 1 1 19 2.</_></rects>
      <tilted>0</tilted></_>
    <_>
      <rects>
        <_>
          0 10 16 2 -1.</_>
        <_>
          8 10 8 2 2.</_></rects>
      <tilted>0</tilted></_>
    <_>
      <rects>
        <_>
          1 0 19 2 -1.</_>
        <_>
          1 1 19 1 2.</_></rects>
      <tilted>0</tilted></_>
    <_>
      <rects>
        <_>
          6 10 10 2 -1.</_>
        <_>
          11 10 5 2 2.</_></rects>
      <tilted>0</tilted></_>
    <_>
      <rects>
        <_>
          7 9 3 4 -1.</_>
        <_>
          8 9 1 4 3.</_></rects>
      <tilted>0</tilted></_>
    <_>
      <rects>
        <_>
          7 9 6 2 -1.</_>
        <_>
          7 10 6 1 2.</_></rects>
      <tilted>0</tilted></_>
    <_>
      <rects>
        <_>
          8 11 4 1 -1.</_>
        <_>
          10 11 2 1 2.</_></rects>
      <tilted>0</tilted></_>
    <_>
      <rects>
        <_>
          8 11 5 4 -1.</_>
        <_>
          8 13 5 2 2.</_></rects>
      <tilted>0</tilted></_>
    <_>
      <rects>
        <_>
          9 2 3 18 -1.</_>
        <_>
          9 8 3 6 3.</_></rects>
      <tilted>0</tilted></_>
    <_>
      <rects>
        <_>
          9 5 2 9 -1.</_>
        <_>
          9 8 2 3 3.</_></rects>
      <tilted>0</tilted></_>
    <_>
      <rects>
        <_>
          9 6 2 3 -1.</_>
        <_>
          9 7 2 1 3.</_></rects>
      <tilted>0</tilted></_>
    <_>
      <rects>
        <_>
          9 7 3 3 -1.</_>
        <_>
          9 8 3 1 3.</_></rects>
      <tilted>0</tilted></_>
    <_>
      <rects>
        <_>
          9 8 2 3 -1.</_>
        <_>
          9 9 2 1 3.</_></rects>
      <tilted>0</tilted></_>
    <_>
      <rects>
        <_>
          9 9 2 4 -1.</_>
        <_>
          9 11 2 2 2.</_></rects>
      <tilted>0</tilted></_>
    <_>
      <rects>
        <_>
          9 10 1 2 -1.</_>
        <_>
          9 11 1 1 2.</_></rects>
      <tilted>0</tilted></_>
    <_>
      <rects>
        <_>
          9 10 2 3 -1.</_>
        <_>
          9 11 2 1 3.</_></rects>
      <tilted>0</tilted></_>
    <_>
      <rects>
        <_>
          9 10 3 6 -1.</_>
        <_>
          9 12 3 2 3.</_></rects>
      <tilted>0</tilted></_>
    <_>
      <rects>
        <_>
          9 11 2 1 -1.</_>
        <_>
          10 11 1 1 2.</_></rects>
      <tilted>0</tilted></_>
    <_>
      <rects>
        <_>
          9 11 3 2 -1.</_>
        <_>
          9 12 3 1 2.</_></rects>
      <tilted>0</tilted></_>
    <_>
      <rects>
        <_>
          10 6 1 2 -1.</_>
        <_>
          10 7 1 1 2.</_></rects>
      <tilted>0</tilted></_>
    <_>
      <rects>
        <_>
          10 9 1 4 -1.</_>
        <_>
          10 11 1 2 2.</_></rects>
      <tilted>0</tilted></_>
    <_>
      <rects>
        <_>
          10 10 2 2 -1.</_>
        <_>
          11 10 1 2 2.</_></rects>
      <tilted>0</tilted></_>
    <_>
      <rects>
        <_>
          10 11 1 6 -1.</_>
        <_>
          10 13 1 2 3.</_></rects>
      <tilted>0</tilted></_>
    <_>
      <rects>
        <_>
          10 13 1 3 -1.</_>
        <_>
          10 14 1 1 3.</_></rects>
      <tilted>0</tilted></_>
    <_>
      <rects>
        <_>
          10 14 1 2 -1.</_>
        <_>
          10 15 1 1 2.</_></rects>
      <tilted>0</tilted></_></features></cascade>
</opencv_storage>
