<?xml version="1.0"?>
<opencv_storage>
<cascade>
  <stageType>BOOST</stageType>
  <featureType>HAAR</featureType>
  <height>20</height>
  <width>20</width>
  <stageParams>
    <boostType>GAB</boostType>
    <minHitRate>9.9500000476837158e-01</minHitRate>
    <maxFalseAlarm>5.0000000000000000e-01</maxFalseAlarm>
    <weightTrimRate>9.4999999999999996e-01</weightTrimRate>
    <maxDepth>1</maxDepth>
    <maxWeakCount>100</maxWeakCount></stageParams>
  <featureParams>
    <maxCatCount>0</maxCatCount>
    <featSize>1</featSize>
    <mode>BASIC</mode></featureParams>
  <stageNum>10</stageNum>
  <stages>
    <!-- stage 0 -->
    <_>
      <maxWeakCount>3</maxWeakCount>
      <stageThreshold>-1.1773043870925903e+00</stageThreshold>
      <weakClassifiers>
        <_>
          <internalNodes>
            0 -1 43 5.1798455417156219e-02</internalNodes>
          <leafValues>
            -8.4468340873718262e-01 8.6258721351623535e-01</leafValues></_>
        <_>
          <internalNodes>
            0 -1 12 8.4585428237915039e-02</internalNodes>
          <leafValues>
            -7.1874547004699707e-01 7.4390417337417603e-01</leafValues></_>
        <_>
          <internalNodes>
            0 -1 44 2.8722486458718777e-03</internalNodes>
          <leafValues>
            -8.1944292783737183e-01 3.8612446188926697e-01</leafValues></_></weakClassifiers></_>
    <!-- stage 1 -->
    <_>
      <maxWeakCount>7</maxWeakCount>
      <stageThreshold>-1.5281409025192261e+00</stageThreshold>
      <weakClassifiers>
        <_>
          <internalNodes>
            0 -1 5 6.3263110816478729e-02</internalNodes>
          <leafValues>
            -6.8202763795852661e-01 8.1441050767898560e-01</leafValues></_>
        <_>
          <internalNodes>
            0 -1 37 1.0535027831792831e-01</internalNodes>
          <leafValues>
            -6.5353900194168091e-01 5.8989077806472778e-01</leafValues></_>
        <_>
          <internalNodes>
            0 -1 50 -2.3343478096649051e-04</internalNodes>
          <leafValues>
            -8.3783167600631714e-01 3.1426903605461121e-01</leafValues></_>
        <_>
          <internalNodes>
            0 -1 23 -1.7659427598118782e-02</internalNodes>
          <leafValues>
            4.4543656706809998e-01 -4.6279734373092651e-01</leafValues></_>
        <_>
          <internalNodes>
            0 -1 52 1.1722776980604976e-04</internalNodes>
          <leafValues>
            3.2974007725715637e-01 -5.8522027730941772e-01</leafValues></_>
        <_>
          <internalNodes>
            0 -1 40 5.0088176503777504e-03</internalNodes>
          <leafValues>
            -8.0834370851516724e-01 2.2491592168807983e-01</leafValues></_>
        <_>
          <internalNodes>
            0 -1 60 -1.6496677417308092e-03</internalNodes>
          <leafValues>
            3.1625843048095703e-01 -5.8829385042190552e-01</leafValues></_></weakClassifiers></_>
    <!-- stage 2 -->
    <_>
      <maxWeakCount>8</maxWeakCount>
      <stageThreshold>-9.7707355022430420e-01</stageThreshold>
      <weakClassifiers>
        <_>
          <internalNodes>
            0 -1 6 1.1509756743907928e-01</internalNodes>
          <leafValues>
            -4.1245135664939880e-01 7.9186600446701050e-01</leafValues></_>
        <_>
          <internalNodes>
            0 -1 35 8.6041614413261414e-02</internalNodes>
          <leafValues>
            -7.4196428060531616e-01 4.6603670716285706e-01</leafValues></_>
        <_>
          <internalNodes>
            0 -1 2 5.4105781018733978e-03</internalNodes>
          <leafValues>
            -4.9757605791091919e-01 4.5037364959716797e-01</leafValues></_>
        <_>
          <internalNodes>
            0 -1 51 -9.3288399511948228e-05</internalNodes>
          <leafValues>
            -8.4105771780014038e-01 2.6718094944953918e-01</leafValues></_>
        <_>
          <internalNodes>
            0 -1 51 6.7051696532871574e-05</internalNodes>
          <leafValues>
            3.3977350592613220e-01 -7.6051503419876099e-01</leafValues></_>
        <_>
          <internalNodes>
            0 -1 63 -7.2476072236895561e-03</internalNodes>
          <leafValues>
            5.1660418510437012e-01 -4.4156053662300110e-01</leafValues></_>
        <_>
          <internalNodes>
            0 -1 46 5.2370619960129261e-03</internalNodes>
          <leafValues>
            -7.9367089271545410e-01 2.1454884111881256e-01</leafValues></_>
        <_>
          <internalNodes>
            0 -1 49 1.1608896602410823e-04</internalNodes>
          <leafValues>
            2.9497537016868591e-01 -5.9748136997222900e-01</leafValues></_></weakClassifiers></_>
    <!-- stage 3 -->
    <_>
      <maxWeakCount>9</maxWeakCount>
      <stageThreshold>-1.2183182239532471e+00</stageThreshold>
      <weakClassifiers>
        <_>
          <internalNodes>
            0 -1 11 -5.5815037339925766e-03</internalNodes>
          <leafValues>
            7.6794874668121338e-01 -2.6140350103378296e-01</leafValues></_>
        <_>
          <internalNodes>
            0 -1 49 -1.0556896449998021e-04</internalNodes>
          <leafValues>
            -8.0183643102645874e-01 3.8400048017501831e-01</leafValues></_>
        <_>
          <internalNodes>
            0 -1 16 -1.6753550618886948e-02</internalNodes>
          <leafValues>
            6.5284603834152222e-01 -3.7578013539314270e-01</leafValues></_>
        <_>
          <internalNodes>
            0 -1 15 4.5764185488224030e-03</internalNodes>
          <leafValues>
            -4.5994436740875244e-01 4.5754045248031616e-01</leafValues></_>
        <_>
          <internalNodes>
            0 -1 28 -3.8869699928909540e-03</internalNodes>
          <leafValues>
            3.4113574028015137e-01 -5.7112658023834229e-01</leafValues></_>
        <_>
          <internalNodes>
            0 -1 51 -1.1038818047381938e-04</internalNodes>
          <leafValues>
            -8.3746087551116943e-01 2.1753852069377899e-01</leafValues></_>
        <_>
          <internalNodes>
            0 -1 41 -6.7592584528028965e-03</internalNodes>
          <leafValues>
            2.1590059995651245e-01 -7.9100799560546875e-01</leafValues></_>
        <_>
          <internalNodes>
            0 -1 38 1.5276114642620087e-01</internalNodes>
          <leafValues>
            -6.3114452362060547e-01 2.5832366943359375e-01</leafValues></_>
        <_>
          <internalNodes>
            0 -1 3 2.8980700299143791e-03</internalNodes>
          <leafValues>
            -5.5919724702835083e-01 2.7990794181823730e-01</leafValues></_></weakClassifiers></_>
    <!-- stage 4 -->
    <_>
      <maxWeakCount>7</maxWeakCount>
      <stageThreshold>-9.0347373485565186e-01</stageThreshold>
      <weakClassifiers>
        <_>
          <internalNodes>
            0 -1 51 1.0324915638193488e-04</internalNodes>
          <leafValues>
            5.7644909620285034e-01 -7.1316307783126831e-01</leafValues></_>
        <_>
          <internalNodes>
            0 -1 10 -1.6374763101339340e-02</internalNodes>
          <leafValues>
            6.2735974788665771e-01 -3.9746189117431641e-01</leafValues></_>
        <_>
          <internalNodes>
            0 -1 57 -1.9613547250628471e-02</internalNodes>
          <leafValues>
            6.1593788862228394e-01 -3.7467291951179504e-01</leafValues></_>
        <_>
          <internalNodes>
            0 -1 51 -5.8382320275995880e-05</internalNodes>
          <leafValues>
            -7.3016422986984253e-01 2.8738126158714294e-01</leafValues></_>
        <_>
          <internalNodes>
            0 -1 42 -5.4450416937470436e-03</internalNodes>
          <leafValues>
            4.6528163552284241e-01 -3.8853672146797180e-01</leafValues></_>
        <_>
          <internalNodes>
            0 -1 59 -6.4270524308085442e-03</internalNodes>
          <leafValues>
            2.6241120696067810e-01 -5.9695529937744141e-01</leafValues></_>
        <_>
          <internalNodes>
            0 -1 39 6.6492045298218727e-03</internalNodes>
          <leafValues>
            -7.2823178768157959e-01 2.5511327385902405e-01</leafValues></_></weakClassifiers></_>
    <!-- stage 5 -->
    <_>
      <maxWeakCount>8</maxWeakCount>
      <stageThreshold>-1.1535847187042236e+00</stageThreshold>
      <weakClassifiers>
        <_>
          <internalNodes>
            0 -1 30 -5.0892927683889866e-03</internalNodes>
          <leafValues>
            7.1546149253845215e-01 -3.1731730699539185e-01</leafValues></_>
        <_>
          <internalNodes>
            0 -1 29 3.3222290221601725e-03</internalNodes>
          <leafValues>
            -7.2609114646911621e-01 3.3770778775215149e-01</leafValues></_>
        <_>
          <internalNodes>
            0 -1 53 1.0684190056053922e-04</internalNodes>
          <leafValues>
            2.0561863481998444e-01 -8.7018048763275146e-01</leafValues></_>
        <_>
          <internalNodes>
            0 -1 53 -1.2996220903005451e-04</internalNodes>
          <leafValues>
            -7.3048734664916992e-01 2.8102093935012817e-01</leafValues></_>
        <_>
          <internalNodes>
            0 -1 55 -1.4676993712782860e-02</internalNodes>
          <leafValues>
            5.8211648464202881e-01 -3.4557804465293884e-01</leafValues></_>
        <_>
          <internalNodes>
            0 -1 25 -6.2837362289428711e-02</internalNodes>
          <leafValues>
            7.9229331016540527e-01 -2.5185319781303406e-01</leafValues></_>
        <_>
          <internalNodes>
            0 -1 7 5.7323537766933441e-03</internalNodes>
          <leafValues>
            -3.6768954992294312e-01 4.6123802661895752e-01</leafValues></_>
        <_>
          <internalNodes>
            0 -1 32 -6.5552830696105957e-02</internalNodes>
          <leafValues>
            2.9404240846633911e-01 -6.1168015003204346e-01</leafValues></_></weakClassifiers></_>
    <!-- stage 6 -->
    <_>
      <maxWeakCount>9</maxWeakCount>
      <stageThreshold>-6.8266892433166504e-01</stageThreshold>
      <weakClassifiers>
        <_>
          <internalNodes>
            0 -1 5 7.0061057806015015e-02</internalNodes>
          <leafValues>
            -4.4391784071922302e-01 5.7135945558547974e-01</leafValues></_>
        <_>
          <internalNodes>
            0 -1 45 8.5264851804822683e-04</internalNodes>
          <leafValues>
            -8.9968782663345337e-01 2.2474983334541321e-01</leafValues></_>
        <_>
          <internalNodes>
            0 -1 49 9.5407245680689812e-05</internalNodes>
          <leafValues>
            2.8802832961082458e-01 -6.1915755271911621e-01</leafValues></_>
        <_>
          <internalNodes>
            0 -1 47 2.6891632005572319e-03</internalNodes>
          <leafValues>
            -8.0715346336364746e-01 1.6605858504772186e-01</leafValues></_>
        <_>
          <internalNodes>
            0 -1 0 2.0743485540151596e-02</internalNodes>
          <leafValues>
            -4.6101284027099609e-01 3.5756367444992065e-01</leafValues></_>
        <_>
          <internalNodes>
            0 -1 52 -9.3719529104419053e-05</internalNodes>
          <leafValues>
            -8.0928766727447510e-01 1.6025227308273315e-01</leafValues></_>
        <_>
          <internalNodes>
            0 -1 52 6.9314584834501147e-05</internalNodes>
          <leafValues>
            3.4387940168380737e-01 -5.8183681964874268e-01</leafValues></_>
        <_>
          <internalNodes>
            0 -1 31 -1.3706410303711891e-02</internalNodes>
          <leafValues>
            5.0035762786865234e-01 -3.1716066598892212e-01</leafValues></_>
        <_>
          <internalNodes>
            0 -1 61 -4.5925881713628769e-03</internalNodes>
          <leafValues>
            3.7183785438537598e-01 -4.4386038184165955e-01</leafValues></_></weakClassifiers></_>
    <!-- stage 7 -->
    <_>
      <maxWeakCount>9</maxWeakCount>
      <stageThreshold>-8.3407336473464966e-01</stageThreshold>
      <weakClassifiers>
        <_>
          <internalNodes>
            0 -1 17 -1.6640245914459229e-02</internalNodes>
          <leafValues>
            6.0669910907745361e-01 -2.6266196370124817e-01</leafValues></_>
        <_>
          <internalNodes>
            0 -1 52 2.3051725293044001e-04</internalNodes>
          <leafValues>
            2.9873794317245483e-01 -6.4502078294754028e-01</leafValues></_>
        <_>
          <internalNodes>
            0 -1 13 -3.0366824939846992e-03</internalNodes>
          <leafValues>
            3.8753738999366760e-01 -4.1609811782836914e-01</leafValues></_>
        <_>
          <internalNodes>
            0 -1 50 -1.4543469296768308e-04</internalNodes>
          <leafValues>
            -8.0761510133743286e-01 1.6270089149475098e-01</leafValues></_>
        <_>
          <internalNodes>
            0 -1 19 -4.5433048158884048e-02</internalNodes>
          <leafValues>
            6.7413425445556641e-01 -2.6102340221405029e-01</leafValues></_>
        <_>
          <internalNodes>
            0 -1 9 7.4946254491806030e-02</internalNodes>
          <leafValues>
            -3.4669500589370728e-01 5.5958157777786255e-01</leafValues></_>
        <_>
          <internalNodes>
            0 -1 26 3.2708823680877686e-02</internalNodes>
          <leafValues>
            2.0827855169773102e-01 -8.7853372097015381e-01</leafValues></_>
        <_>
          <internalNodes>
            0 -1 53 -9.5280294772237539e-05</internalNodes>
          <leafValues>
            -6.8167883157730103e-01 2.0756031572818756e-01</leafValues></_>
        <_>
          <internalNodes>
            0 -1 36 -2.0809203386306763e-02</internalNodes>
          <leafValues>
            5.1435589790344238e-01 -2.8474938869476318e-01</leafValues></_></weakClassifiers></_>
    <!-- stage 8 -->
    <_>
      <maxWeakCount>10</maxWeakCount>
      <stageThreshold>-1.1003240346908569e+00</stageThreshold>
      <weakClassifiers>
        <_>
          <internalNodes>
            0 -1 53 1.6420678002759814e-04</internalNodes>
          <leafValues>
            4.6886599063873291e-01 -8.6181819438934326e-01</leafValues></_>
        <_>
          <internalNodes>
            0 -1 33 -1.1697076261043549e-02</internalNodes>
          <leafValues>
            6.4229673147201538e-01 -3.0353656411170959e-01</leafValues></_>
        <_>
          <internalNodes>
            0 -1 4 1.5183037519454956e-01</internalNodes>
          <leafValues>
            -6.0564619302749634e-01 2.7652645111083984e-01</leafValues></_>
        <_>
          <internalNodes>
            0 -1 34 -4.1902311146259308e-02</internalNodes>
          <leafValues>
            5.5650877952575684e-01 -2.9694029688835144e-01</leafValues></_>
        <_>
          <internalNodes>
            0 -1 22 5.0167866051197052e-02</internalNodes>
          <leafValues>
            -2.7990365028381348e-01 7.0777130126953125e-01</leafValues></_>
        <_>
          <internalNodes>
            0 -1 58 5.7400338351726532e-02</internalNodes>
          <leafValues>
            -1.8232187628746033e-01 7.2805041074752808e-01</leafValues></_>
        <_>
          <internalNodes>
            0 -1 48 -2.1005282178521156e-03</internalNodes>
          <leafValues>
            5.3215098381042480e-01 -2.9311844706535339e-01</leafValues></_>
        <_>
          <internalNodes>
            0 -1 27 -3.0882409773766994e-03</internalNodes>
          <leafValues>
            5.3667229413986206e-01 -2.7784651517868042e-01</leafValues></_>
        <_>
          <internalNodes>
            0 -1 62 -5.7796882465481758e-03</internalNodes>
          <leafValues>
            3.9591795206069946e-01 -3.5322707891464233e-01</leafValues></_>
        <_>
          <internalNodes>
            0 -1 54 1.2289569713175297e-04</internalNodes>
          <leafValues>
            1.1297830194234848e-01 -9.7209924459457397e-01</leafValues></_></weakClassifiers></_>
    <!-- stage 9 -->
    <_>
      <maxWeakCount>10</maxWeakCount>
      <stageThreshold>-7.0672345161437988e-01</stageThreshold>
      <weakClassifiers>
        <_>
          <internalNodes>
            0 -1 51 8.3063794590998441e-05</internalNodes>
          <leafValues>
            4.8958334326744080e-01 -5.7575756311416626e-01</leafValues></_>
        <_>
          <internalNodes>
            0 -1 21 -9.6554066985845566e-03</internalNodes>
          <leafValues>
            4.9188005924224854e-01 -3.1600397825241089e-01</leafValues></_>
        <_>
          <internalNodes>
            0 -1 51 -8.0824065662454814e-05</internalNodes>
          <leafValues>
            -8.0371171236038208e-01 2.0606328547000885e-01</leafValues></_>
        <_>
          <internalNodes>
            0 -1 56 -2.6437316089868546e-02</internalNodes>
          <leafValues>
            4.9512174725532532e-01 -3.2623267173767090e-01</leafValues></_>
        <_>
          <internalNodes>
            0 -1 24 1.4790795743465424e-01</internalNodes>
          <leafValues>
            -7.1244502067565918e-01 2.3942528665065765e-01</leafValues></_>
        <_>
          <internalNodes>
            0 -1 1 7.0938612334430218e-03</internalNodes>
          <leafValues>
            -4.3823257088661194e-01 3.0151224136352539e-01</leafValues></_>
        <_>
          <internalNodes>
            0 -1 20 -4.4009357690811157e-02</internalNodes>
          <leafValues>
            5.9781485795974731e-01 -2.3557230830192566e-01</leafValues></_>
        <_>
          <internalNodes>
            0 -1 18 -3.5013236105442047e-02</internalNodes>
          <leafValues>
            7.0142674446105957e-01 -2.3633241653442383e-01</leafValues></_>
        <_>
          <internalNodes>
            0 -1 14 8.9109987020492554e-02</internalNodes>
          <leafValues>
            -1.7576697468757629e-01 7.7381628751754761e-01</leafValues></_>
        <_>
          <internalNodes>
            0 -1 8 4.4751381501555443e-03</internalNodes>
          <leafValues>
            -3.7515026330947876e-01 3.5637581348419189e-01</leafValues></_></weakClassifiers></_></stages>
  <features>
    <_>
      <rects>
        <_>
          0 3 4 15 -1.</_>
        <_>
          2 3 2 15 2.</_></rects>
      <tilted>0</tilted></_>
    <_>
      <rects>
        <_>
          1 4 2 13 -1.</_>
        <_>
          2 4 1 13 2.</_></rects>
      <tilted>0</tilted></_>
    <_>
      <rects>
        <_>
          1 4 2 14 -1.</_>
        <_>
          2 4 1 14 2.</_></rects>
      <tilted>0</tilted></_>
    <_>
      <rects>
        <_>
          1 6 2 11 -1.</_>
        <_>
          2 6 1 11 2.</_></rects>
      <tilted>0</tilted></_>
    <_>
      <rects>
        <_>
          1 8 18 7 -1.</_>
        <_>
          7 8 6 7 3.</_></rects>
      <tilted>0</tilted></_>
    <_>
      <rects>
        <_>
          1 9 18 2 -1.</_>
        <_>
          7 9 6 2 3.</_></rects>
      <tilted>0</tilted></_>
    <_>
      <rects>
        <_>
          1 9 18 3 -1.</_>
        <_>
          7 9 6 3 3.</_></rects>
      <tilted>0</tilted></_>
    <_>
      <rects>
        <_>
          2 1 11 2 -1.</_>
        <_>
          2 2 11 1 2.</_></rects>
      <tilted>0</tilted></_>
    <_>
      <rects>
        <_>
          2 1 14 2 -1.</_>
        <_>
          2 2 14 1 2.</_></rects>
      <tilted>0</tilted></_>
    <_>
      <rects>
        <_>
          2 3 8 12 -1.</_>
        <_>
          2 3 4 6 2.</_>
        <_>
          6 9 4 6 2.</_></rects>
      <tilted>0</tilted></_>
    <_>
      <rects>
        <_>
          2 7 7 6 -1.</_>
        <_>
          2 9 7 2 3.</_></rects>
      <tilted>0</tilted></_>
    <_>
      <rects>
        <_>
          2 7 17 6 -1.</_>
        <_>
          2 9 17 2 3.</_></rects>
      <tilted>0</tilted></_>
    <_>
      <rects>
        <_>
          2 9 18 3 -1.</_>
        <_>
          8 9 6 3 3.</_></rects>
      <tilted>0</tilted></_>
    <_>
      <rects>
        <_>
          2 9 17 3 -1.</_>
        <_>
          2 10 17 1 3.</_></rects>
      <tilted>0</tilted></_>
    <_>
      <rects>
        <_>
          2 13 12 4 -1.</_>
        <_>
          6 13 4 4 3.</_></rects>
      <tilted>0</tilted></_>
    <_>
      <rects>
        <_>
          3 1 13 2 -1.</_>
        <_>
          3 2 13 1 2.</_></rects>
      <tilted>0</tilted></_>
    <_>
      <rects>
        <_>
          3 8 5 6 -1.</_>
        <_>
          3 10 5 2 3.</_></rects>
      <tilted>0</tilted></_>
    <_>
      <rects>
        <_>
          3 16 15 4 -1.</_>
        <_>
          3 18 15 2 2.</_></rects>
      <tilted>0</tilted></_>
    <_>
      <rects>
        <_>
          4 4 4 9 -1.</_>
        <_>
          4 7 4 3 3.</_></rects>
      <tilted>0</tilted></_>
    <_>
      <rects>
        <_>
          4 7 6 8 -1.</_>
        <_>
          4 7 3 4 2.</_>
        <_>
          7 11 3 4 2.</_></rects>
      <tilted>0</tilted></_>
    <_>
      <rects>
        <_>
          4 7 4 9 -1.</_>
        <_>
          4 10 4 3 3.</_></rects>
      <tilted>0</tilted></_>
    <_>
      <rects>
        <_>
          4 7 6 6 -1.</_>
        <_>
          4 9 6 2 3.</_></rects>
      <tilted>0</tilted></_>
    <_>
      <rects>
        <_>
          4 8 4 9 -1.</_>
        <_>
          4 11 4 3 3.</_></rects>
      <tilted>0</tilted></_>
    <_>
      <rects>
        <_>
          4 16 12 4 -1.</_>
        <_>
          4 18 12 2 2.</_></rects>
      <tilted>0</tilted></_>
    <_>
      <rects>
        <_>
          5 2 11 18 -1.</_>
        <_>
          5 8 11 6 3.</_></rects>
      <tilted>0</tilted></_>
    <_>
      <rects>
        <_>
          5 4 12 6 -1.</_>
        <_>
          5 4 6 3 2.</_>
        <_>
          11 7 6 3 2.</_></rects>
      <tilted>0</tilted></_>
    <_>
      <rects>
        <_>
          5 6 5 10 -1.</_>
        <_>
          5 11 5 5 2.</_></rects>
      <tilted>0</tilted></_>
    <_>
      <rects>
        <_>
          5 9 6 3 -1.</_>
        <_>
          5 10 6 1 3.</_></rects>
      <tilted>0</tilted></_>
    <_>
      <rects>
        <_>
          5 17 13 2 -1.</_>
        <_>
          5 18 13 1 2.</_></rects>
      <tilted>0</tilted></_>
    <_>
      <rects>
        <_>
          6 8 6 4 -1.</_>
        <_>
          9 8 3 4 2.</_></rects>
      <tilted>0</tilted></_>
    <_>
      <rects>
        <_>
          7 2 6 17 -1.</_>
        <_>
          9 2 2 17 3.</_></rects>
      <tilted>0</tilted></_>
    <_>
      <rects>
        <_>
          7 5 6 5 -1.</_>
        <_>
          9 5 2 5 3.</_></rects>
      <tilted>0</tilted></_>
    <_>
      <rects>
        <_>
          7 6 8 14 -1.</_>
        <_>
          7 13 8 7 2.</_></rects>
      <tilted>0</tilted></_>
    <_>
      <rects>
        <_>
          7 11 6 5 -1.</_>
        <_>
          9 11 2 5 3.</_></rects>
      <tilted>0</tilted></_>
    <_>
      <rects>
        <_>
          7 12 9 6 -1.</_>
        <_>
          10 12 3 6 3.</_></rects>
      <tilted>0</tilted></_>
    <_>
      <rects>
        <_>
          8 0 5 18 -1.</_>
        <_>
          8 6 5 6 3.</_></rects>
      <tilted>0</tilted></_>
    <_>
      <rects>
        <_>
          8 1 6 8 -1.</_>
        <_>
          10 1 2 8 3.</_></rects>
      <tilted>0</tilted></_>
    <_>
      <rects>
        <_>
          8 1 4 18 -1.</_>
        <_>
          8 7 4 6 3.</_></rects>
      <tilted>0</tilted></_>
    <_>
      <rects>
        <_>
          8 1 8 18 -1.</_>
        <_>
          8 7 8 6 3.</_></rects>
      <tilted>0</tilted></_>
    <_>
      <rects>
        <_>
          8 6 5 4 -1.</_>
        <_>
          8 8 5 2 2.</_></rects>
      <tilted>0</tilted></_>
    <_>
      <rects>
        <_>
          8 6 5 6 -1.</_>
        <_>
          8 9 5 3 2.</_></rects>
      <tilted>0</tilted></_>
    <_>
      <rects>
        <_>
          8 8 8 5 -1.</_>
        <_>
          12 8 4 5 2.</_></rects>
      <tilted>0</tilted></_>
    <_>
      <rects>
        <_>
          9 2 3 17 -1.</_>
        <_>
          10 2 1 17 3.</_></rects>
      <tilted>0</tilted></_>
    <_>
      <rects>
        <_>
          9 3 3 15 -1.</_>
        <_>
          9 8 3 5 3.</_></rects>
      <tilted>0</tilted></_>
    <_>
      <rects>
        <_>
          9 7 2 6 -1.</_>
        <_>
          9 9 2 2 3.</_></rects>
      <tilted>0</tilted></_>
    <_>
      <rects>
        <_>
          9 7 3 4 -1.</_>
        <_>
          9 9 3 2 2.</_></rects>
      <tilted>0</tilted></_>
    <_>
      <rects>
        <_>
          9 7 3 6 -1.</_>
        <_>
          9 9 3 2 3.</_></rects>
      <tilted>0</tilted></_>
    <_>
      <rects>
        <_>
          9 8 2 6 -1.</_>
        <_>
          9 10 2 2 3.</_></rects>
      <tilted>0</tilted></_>
    <_>
      <rects>
        <_>
          9 8 8 6 -1.</_>
        <_>
          9 10 8 2 3.</_></rects>
      <tilted>0</tilted></_>
    <_>
      <rects>
        <_>
          9 9 1 2 -1.</_>
        <_>
          9 10 1 1 2.</_></rects>
      <tilted>0</tilted></_>
    <_>
      <rects>
        <_>
          9 9 2 2 -1.</_>
        <_>
          9 10 2 1 2.</_></rects>
      <tilted>0</tilted></_>
    <_>
      <rects>
        <_>
          9 10 2 1 -1.</_>
        <_>
          10 10 1 1 2.</_></rects>
      <tilted>0</tilted></_>
    <_>
      <rects>
        <_>
          10 9 1 2 -1.</_>
        <_>
          10 10 1 1 2.</_></rects>
      <tilted>0</tilted></_>
    <_>
      <rects>
        <_>
          10 10 2 1 -1.</_>
        <_>
          11 10 1 1 2.</_></rects>
      <tilted>0</tilted></_>
    <_>
      <rects>
        <_>
          10 10 1 2 -1.</_>
        <_>
          10 11 1 1 2.</_></rects>
      <tilted>0</tilted></_>
    <_>
      <rects>
        <_>
          11 8 6 6 -1.</_>
        <_>
          11 10 6 2 3.</_></rects>
      <tilted>0</tilted></_>
    <_>
      <rects>
        <_>
          12 7 6 6 -1.</_>
        <_>
          12 9 6 2 3.</_></rects>
      <tilted>0</tilted></_>
    <_>
      <rects>
        <_>
          13 7 5 6 -1.</_>
        <_>
          13 9 5 2 3.</_></rects>
      <tilted>0</tilted></_>
    <_>
      <rects>
        <_>
          13 8 4 9 -1.</_>
        <_>
          13 11 4 3 3.</_></rects>
      <tilted>0</tilted></_>
    <_>
      <rects>
        <_>
          16 5 4 10 -1.</_>
        <_>
          18 5 2 10 2.</_></rects>
      <tilted>0</tilted></_>
    <_>
      <rects>
        <_>
          17 3 2 12 -1.</_>
        <_>
          18 3 1 12 2.</_></rects>
      <tilted>0</tilted></_>
    <_>
      <rects>
        <_>
          18 5 2 11 -1.</_>
        <_>
          19 5 1 11 2.</_></rects>
      <tilted>0</tilted></_>
    <_>
      <rects>
        <_>
          18 5 2 12 -1.</_>
        <_>
          19 5 1 12 2.</_></rects>
      <tilted>0</tilted></_>
    <_>
      <rects>
        <_>
          18 5 2 13 -1.</_>
        <_>
          19 5 1 13 2.</_></rects>
      <tilted>0</tilted></_></features></cascade>
</opencv_storage>
