<?xml version="1.0"?>
<opencv_storage>
<cascade>
  <stageType>BOOST</stageType>
  <featureType>HAAR</featureType>
  <height>20</height>
  <width>20</width>
  <stageParams>
    <boostType>GAB</boostType>
    <minHitRate>9.9500000476837158e-01</minHitRate>
    <maxFalseAlarm>5.0000000000000000e-01</maxFalseAlarm>
    <weightTrimRate>9.4999999999999996e-01</weightTrimRate>
    <maxDepth>1</maxDepth>
    <maxWeakCount>100</maxWeakCount></stageParams>
  <featureParams>
    <maxCatCount>0</maxCatCount>
    <featSize>1</featSize>
    <mode>BASIC</mode></featureParams>
  <stageNum>10</stageNum>
  <stages>
    <!-- stage 0 -->
    <_>
      <maxWeakCount>6</maxWeakCount>
      <stageThreshold>-1.4620620012283325e+00</stageThreshold>
      <weakClassifiers>
        <_>
          <internalNodes>
            0 -1 52 2.6718165725469589e-02</internalNodes>
          <leafValues>
            -4.2831858992576599e-01 8.8152867555618286e-01</leafValues></_>
        <_>
          <internalNodes>
            0 -1 102 5.5605834349989891e-03</internalNodes>
          <leafValues>
            -3.3676773309707642e-01 8.4461760520935059e-01</leafValues></_>
        <_>
          <internalNodes>
            0 -1 2 3.5234712064266205e-02</internalNodes>
          <leafValues>
            -7.2022491693496704e-01 4.8536440730094910e-01</leafValues></_>
        <_>
          <internalNodes>
            0 -1 8 8.9174449443817139e-02</internalNodes>
          <leafValues>
            -5.8411216735839844e-01 4.4490733742713928e-01</leafValues></_>
        <_>
          <internalNodes>
            0 -1 114 1.1243300512433052e-02</internalNodes>
          <leafValues>
            -3.1335395574569702e-01 7.8198295831680298e-01</leafValues></_>
        <_>
          <internalNodes>
            0 -1 34 4.0647860616445541e-02</internalNodes>
          <leafValues>
            -2.8487390279769897e-01 8.2813179492950439e-01</leafValues></_></weakClassifiers></_>
    <!-- stage 1 -->
    <_>
      <maxWeakCount>8</maxWeakCount>
      <stageThreshold>-1.6695301532745361e+00</stageThreshold>
      <weakClassifiers>
        <_>
          <internalNodes>
            0 -1 73 -1.0184247978031635e-02</internalNodes>
          <leafValues>
            7.5774645805358887e-01 -4.8108106851577759e-01</leafValues></_>
        <_>
          <internalNodes>
            0 -1 10 1.1054103076457977e-01</internalNodes>
          <leafValues>
            -4.9792125821113586e-01 6.0357087850570679e-01</leafValues></_>
        <_>
          <internalNodes>
            0 -1 65 3.7019592709839344e-03</internalNodes>
          <leafValues>
            -5.0549894571304321e-01 5.4390871524810791e-01</leafValues></_>
        <_>
          <internalNodes>
            0 -1 56 1.0996017605066299e-02</internalNodes>
          <leafValues>
            -2.6763087511062622e-01 7.6485013961791992e-01</leafValues></_>
        <_>
          <internalNodes>
            0 -1 121 9.2009603977203369e-03</internalNodes>
          <leafValues>
            -2.7270904183387756e-01 8.3097851276397705e-01</leafValues></_>
        <_>
          <internalNodes>
            0 -1 79 1.0911399498581886e-02</internalNodes>
          <leafValues>
            -2.0982415974140167e-01 7.6254671812057495e-01</leafValues></_>
        <_>
          <internalNodes>
            0 -1 2 2.2320413589477539e-01</internalNodes>
          <leafValues>
            -2.9509192705154419e-01 6.0037243366241455e-01</leafValues></_>
        <_>
          <internalNodes>
            0 -1 104 -5.5686309933662415e-03</internalNodes>
          <leafValues>
            7.9420465230941772e-01 -2.4346032738685608e-01</leafValues></_></weakClassifiers></_>
    <!-- stage 2 -->
    <_>
      <maxWeakCount>10</maxWeakCount>
      <stageThreshold>-1.1157867908477783e+00</stageThreshold>
      <weakClassifiers>
        <_>
          <internalNodes>
            0 -1 52 4.3111622333526611e-02</internalNodes>
          <leafValues>
            -2.0971660315990448e-01 7.9112625122070312e-01</leafValues></_>
        <_>
          <internalNodes>
            0 -1 87 -5.6826127693057060e-03</internalNodes>
          <leafValues>
            5.9477216005325317e-01 -3.6126726865768433e-01</leafValues></_>
        <_>
          <internalNodes>
            0 -1 5 1.9130472093820572e-02</internalNodes>
          <leafValues>
            -5.7010757923126221e-01 3.8231700658798218e-01</leafValues></_>
        <_>
          <internalNodes>
            0 -1 18 5.3401015698909760e-02</internalNodes>
          <leafValues>
            -6.1835032701492310e-01 2.8183901309967041e-01</leafValues></_>
        <_>
          <internalNodes>
            0 -1 121 6.7946962080895901e-03</internalNodes>
          <leafValues>
            -3.0215522646903992e-01 5.2404385805130005e-01</leafValues></_>
        <_>
          <internalNodes>
            0 -1 63 2.4932414293289185e-02</internalNodes>
          <leafValues>
            -2.7927339076995850e-01 6.4204728603363037e-01</leafValues></_>
        <_>
          <internalNodes>
            0 -1 23 2.7460670098662376e-02</internalNodes>
          <leafValues>
            -2.1055664122104645e-01 7.4414741992950439e-01</leafValues></_>
        <_>
          <internalNodes>
            0 -1 37 9.7000170499086380e-03</internalNodes>
          <leafValues>
            -2.3945952951908112e-01 5.7263958454132080e-01</leafValues></_>
        <_>
          <internalNodes>
            0 -1 93 1.9523436203598976e-03</internalNodes>
          <leafValues>
            -4.3815493583679199e-01 3.3369326591491699e-01</leafValues></_>
        <_>
          <internalNodes>
            0 -1 46 3.1892177648842335e-03</internalNodes>
          <leafValues>
            -2.3423132300376892e-01 5.1520740985870361e-01</leafValues></_></weakClassifiers></_>
    <!-- stage 3 -->
    <_>
      <maxWeakCount>13</maxWeakCount>
      <stageThreshold>-6.8983548879623413e-01</stageThreshold>
      <weakClassifiers>
        <_>
          <internalNodes>
            0 -1 96 3.4356173127889633e-02</internalNodes>
          <leafValues>
            -8.0459773540496826e-02 8.3456182479858398e-01</leafValues></_>
        <_>
          <internalNodes>
            0 -1 60 2.8271162882447243e-02</internalNodes>
          <leafValues>
            -2.7628880739212036e-01 6.1653220653533936e-01</leafValues></_>
        <_>
          <internalNodes>
            0 -1 68 9.5611978322267532e-03</internalNodes>
          <leafValues>
            -5.0497418642044067e-01 3.9011132717132568e-01</leafValues></_>
        <_>
          <internalNodes>
            0 -1 83 6.8177348002791405e-03</internalNodes>
          <leafValues>
            -3.1452131271362305e-01 4.7839757800102234e-01</leafValues></_>
        <_>
          <internalNodes>
            0 -1 79 8.9168734848499298e-03</internalNodes>
          <leafValues>
            -2.6879554986953735e-01 5.5572158098220825e-01</leafValues></_>
        <_>
          <internalNodes>
            0 -1 101 5.5015040561556816e-03</internalNodes>
          <leafValues>
            -2.8171798586845398e-01 5.7485932111740112e-01</leafValues></_>
        <_>
          <internalNodes>
            0 -1 3 1.5070547163486481e-01</internalNodes>
          <leafValues>
            -4.5215728878974915e-01 3.8091564178466797e-01</leafValues></_>
        <_>
          <internalNodes>
            0 -1 100 4.6675289049744606e-03</internalNodes>
          <leafValues>
            1.4367656409740448e-01 -7.7804154157638550e-01</leafValues></_>
        <_>
          <internalNodes>
            0 -1 35 1.0661574080586433e-02</internalNodes>
          <leafValues>
            -2.1315844357013702e-01 6.0369777679443359e-01</leafValues></_>
        <_>
          <internalNodes>
            0 -1 99 -2.5305966846644878e-03</internalNodes>
          <leafValues>
            -6.9950526952743530e-01 1.8588395416736603e-01</leafValues></_>
        <_>
          <internalNodes>
            0 -1 35 -1.8271598964929581e-02</internalNodes>
          <leafValues>
            8.7732976675033569e-01 -1.8727557361125946e-01</leafValues></_>
        <_>
          <internalNodes>
            0 -1 36 1.4260001480579376e-02</internalNodes>
          <leafValues>
            2.2213721275329590e-01 -7.1965974569320679e-01</leafValues></_>
        <_>
          <internalNodes>
            0 -1 49 2.7163699269294739e-02</internalNodes>
          <leafValues>
            -2.2303538024425507e-01 5.2468037605285645e-01</leafValues></_></weakClassifiers></_>
    <!-- stage 4 -->
    <_>
      <maxWeakCount>15</maxWeakCount>
      <stageThreshold>-1.2281992435455322e+00</stageThreshold>
      <weakClassifiers>
        <_>
          <internalNodes>
            0 -1 73 -2.2518029436469078e-02</internalNodes>
          <leafValues>
            6.8999999761581421e-01 -1.8545454740524292e-01</leafValues></_>
        <_>
          <internalNodes>
            0 -1 89 1.9942838698625565e-02</internalNodes>
          <leafValues>
            -2.8092700242996216e-01 4.9235031008720398e-01</leafValues></_>
        <_>
          <internalNodes>
            0 -1 59 -3.1594946980476379e-02</internalNodes>
          <leafValues>
            7.6605659723281860e-01 -1.3568912446498871e-01</leafValues></_>
        <_>
          <internalNodes>
            0 -1 32 1.5830211341381073e-02</internalNodes>
          <leafValues>
            -2.9188334941864014e-01 6.2368786334991455e-01</leafValues></_>
        <_>
          <internalNodes>
            0 -1 47 2.7958672493696213e-02</internalNodes>
          <leafValues>
            -1.9570073485374451e-01 6.3572132587432861e-01</leafValues></_>
        <_>
          <internalNodes>
            0 -1 106 2.8816025704145432e-02</internalNodes>
          <leafValues>
            -1.9295762479305267e-01 6.8802452087402344e-01</leafValues></_>
        <_>
          <internalNodes>
            0 -1 114 1.1579165235161781e-02</internalNodes>
          <leafValues>
            -2.1694369614124298e-01 4.6820148825645447e-01</leafValues></_>
        <_>
          <internalNodes>
            0 -1 26 5.1045585423707962e-02</internalNodes>
          <leafValues>
            -1.8722689151763916e-01 6.7319542169570923e-01</leafValues></_>
        <_>
          <internalNodes>
            0 -1 82 -1.6891625709831715e-03</internalNodes>
          <leafValues>
            -6.4400857686996460e-01 1.7276193201541901e-01</leafValues></_>
        <_>
          <internalNodes>
            0 -1 20 -5.2578728646039963e-03</internalNodes>
          <leafValues>
            3.8725078105926514e-01 -2.4517096579074860e-01</leafValues></_>
        <_>
          <internalNodes>
            0 -1 17 3.0802249908447266e-02</internalNodes>
          <leafValues>
            -5.2468299865722656e-01 2.0043578743934631e-01</leafValues></_>
        <_>
          <internalNodes>
            0 -1 14 -3.8749344646930695e-02</internalNodes>
          <leafValues>
            5.7282704114913940e-01 -1.7293570935726166e-01</leafValues></_>
        <_>
          <internalNodes>
            0 -1 90 -1.2181295081973076e-02</internalNodes>
          <leafValues>
            7.4308073520660400e-01 -1.3693340122699738e-01</leafValues></_>
        <_>
          <internalNodes>
            0 -1 120 3.7752902135252953e-03</internalNodes>
          <leafValues>
            1.6920366883277893e-01 -6.8481093645095825e-01</leafValues></_>
        <_>
          <internalNodes>
            0 -1 9 3.0966766178607941e-02</internalNodes>
          <leafValues>
            -4.0975964069366455e-01 2.4055907130241394e-01</leafValues></_></weakClassifiers></_>
    <!-- stage 5 -->
    <_>
      <maxWeakCount>12</maxWeakCount>
      <stageThreshold>-1.1640601158142090e+00</stageThreshold>
      <weakClassifiers>
        <_>
          <internalNodes>
            0 -1 75 -9.4495841767638922e-04</internalNodes>
          <leafValues>
            6.2236285209655762e-01 -3.4825870394706726e-01</leafValues></_>
        <_>
          <internalNodes>
            0 -1 15 1.1069172993302345e-02</internalNodes>
          <leafValues>
            -3.2101240754127502e-01 4.9986073374748230e-01</leafValues></_>
        <_>
          <internalNodes>
            0 -1 18 1.3056330382823944e-01</internalNodes>
          <leafValues>
            -4.7146973013877869e-01 3.7834540009498596e-01</leafValues></_>
        <_>
          <internalNodes>
            0 -1 14 5.8143824338912964e-02</internalNodes>
          <leafValues>
            -1.6871303319931030e-01 8.4265661239624023e-01</leafValues></_>
        <_>
          <internalNodes>
            0 -1 14 -5.1300980150699615e-02</internalNodes>
          <leafValues>
            6.8868124485015869e-01 -2.1439048647880554e-01</leafValues></_>
        <_>
          <internalNodes>
            0 -1 25 3.9298016577959061e-02</internalNodes>
          <leafValues>
            -1.3788971304893494e-01 6.7076718807220459e-01</leafValues></_>
        <_>
          <internalNodes>
            0 -1 122 2.9943326953798532e-03</internalNodes>
          <leafValues>
            -2.5214421749114990e-01 4.2778375744819641e-01</leafValues></_>
        <_>
          <internalNodes>
            0 -1 119 -2.5710340589284897e-02</internalNodes>
          <leafValues>
            7.7508461475372314e-01 -1.4327445626258850e-01</leafValues></_>
        <_>
          <internalNodes>
            0 -1 50 1.2986966967582703e-01</internalNodes>
          <leafValues>
            1.3992892205715179e-01 -8.7871366739273071e-01</leafValues></_>
        <_>
          <internalNodes>
            0 -1 30 -3.8203716278076172e-02</internalNodes>
          <leafValues>
            7.1604013442993164e-01 -1.9210885465145111e-01</leafValues></_>
        <_>
          <internalNodes>
            0 -1 77 -1.8413975834846497e-02</internalNodes>
          <leafValues>
            -5.1864284276962280e-01 2.5353577733039856e-01</leafValues></_>
        <_>
          <internalNodes>
            0 -1 97 5.9392498806118965e-03</internalNodes>
          <leafValues>
            -2.6510664820671082e-01 3.7847560644149780e-01</leafValues></_></weakClassifiers></_>
    <!-- stage 6 -->
    <_>
      <maxWeakCount>19</maxWeakCount>
      <stageThreshold>-1.1631342172622681e+00</stageThreshold>
      <weakClassifiers>
        <_>
          <internalNodes>
            0 -1 11 -1.2376368045806885e-02</internalNodes>
          <leafValues>
            6.5451055765151978e-01 -1.0817942023277283e-01</leafValues></_>
        <_>
          <internalNodes>
            0 -1 118 4.1481599211692810e-02</internalNodes>
          <leafValues>
            -1.8807205557823181e-01 6.5323162078857422e-01</leafValues></_>
        <_>
          <internalNodes>
            0 -1 7 1.6150243580341339e-02</internalNodes>
          <leafValues>
            -4.2316529154777527e-01 2.8948274254798889e-01</leafValues></_>
        <_>
          <internalNodes>
            0 -1 45 7.0840185508131981e-03</internalNodes>
          <leafValues>
            -6.5930956602096558e-01 1.8453647196292877e-01</leafValues></_>
        <_>
          <internalNodes>
            0 -1 58 1.1980898678302765e-02</internalNodes>
          <leafValues>
            -2.8526619076728821e-01 4.7552993893623352e-01</leafValues></_>
        <_>
          <internalNodes>
            0 -1 44 3.6701383069157600e-03</internalNodes>
          <leafValues>
            -3.1415605545043945e-01 3.5185226798057556e-01</leafValues></_>
        <_>
          <internalNodes>
            0 -1 39 3.2798316329717636e-02</internalNodes>
          <leafValues>
            -1.9348485767841339e-01 7.0786470174789429e-01</leafValues></_>
        <_>
          <internalNodes>
            0 -1 72 1.6654161736369133e-02</internalNodes>
          <leafValues>
            -2.0360991358757019e-01 5.4610186815261841e-01</leafValues></_>
        <_>
          <internalNodes>
            0 -1 21 -2.9318936169147491e-02</internalNodes>
          <leafValues>
            6.8369042873382568e-01 -1.1694986373186111e-01</leafValues></_>
        <_>
          <internalNodes>
            0 -1 13 4.5649006962776184e-02</internalNodes>
          <leafValues>
            -1.2754675745964050e-01 6.2472862005233765e-01</leafValues></_>
        <_>
          <internalNodes>
            0 -1 85 -2.0523438230156898e-02</internalNodes>
          <leafValues>
            6.9064581394195557e-01 -1.3800176978111267e-01</leafValues></_>
        <_>
          <internalNodes>
            0 -1 53 -4.8007108271121979e-03</internalNodes>
          <leafValues>
            -8.0368429422378540e-01 1.5985314548015594e-01</leafValues></_>
        <_>
          <internalNodes>
            0 -1 88 2.1629162132740021e-02</internalNodes>
          <leafValues>
            -2.5172954797744751e-01 4.3640792369842529e-01</leafValues></_>
        <_>
          <internalNodes>
            0 -1 54 -4.1804052889347076e-03</internalNodes>
          <leafValues>
            4.5001399517059326e-01 -1.6602414846420288e-01</leafValues></_>
        <_>
          <internalNodes>
            0 -1 76 2.7986211702227592e-02</internalNodes>
          <leafValues>
            1.2999673187732697e-01 -7.7946817874908447e-01</leafValues></_>
        <_>
          <internalNodes>
            0 -1 80 -4.3856926262378693e-02</internalNodes>
          <leafValues>
            -5.7062894105911255e-01 1.2514697015285492e-01</leafValues></_>
        <_>
          <internalNodes>
            0 -1 111 7.1981221437454224e-02</internalNodes>
          <leafValues>
            -1.5121082961559296e-01 6.4646029472351074e-01</leafValues></_>
        <_>
          <internalNodes>
            0 -1 113 4.4936984777450562e-03</internalNodes>
          <leafValues>
            1.2279611825942993e-01 -6.5566545724868774e-01</leafValues></_>
        <_>
          <internalNodes>
            0 -1 110 -3.2971797045320272e-03</internalNodes>
          <leafValues>
            -6.2543839216232300e-01 1.1249072104692459e-01</leafValues></_></weakClassifiers></_>
    <!-- stage 7 -->
    <_>
      <maxWeakCount>18</maxWeakCount>
      <stageThreshold>-1.0354782342910767e+00</stageThreshold>
      <weakClassifiers>
        <_>
          <internalNodes>
            0 -1 92 3.7628896534442902e-03</internalNodes>
          <leafValues>
            -1.4716106653213501e-01 5.5906367301940918e-01</leafValues></_>
        <_>
          <internalNodes>
            0 -1 108 9.5356237143278122e-03</internalNodes>
          <leafValues>
            -3.3343064785003662e-01 3.9210230112075806e-01</leafValues></_>
        <_>
          <internalNodes>
            0 -1 22 6.5989442169666290e-02</internalNodes>
          <leafValues>
            -1.9405251741409302e-01 5.7564669847488403e-01</leafValues></_>
        <_>
          <internalNodes>
            0 -1 12 5.4871771484613419e-02</internalNodes>
          <leafValues>
            -2.4038086831569672e-01 6.6429102420806885e-01</leafValues></_>
        <_>
          <internalNodes>
            0 -1 19 3.4466288983821869e-02</internalNodes>
          <leafValues>
            -1.0467987507581711e-01 6.8654131889343262e-01</leafValues></_>
        <_>
          <internalNodes>
            0 -1 40 2.5916717946529388e-02</internalNodes>
          <leafValues>
            -1.9018872082233429e-01 5.5582445859909058e-01</leafValues></_>
        <_>
          <internalNodes>
            0 -1 117 4.5398771762847900e-03</internalNodes>
          <leafValues>
            -2.4925069510936737e-01 3.9433678984642029e-01</leafValues></_>
        <_>
          <internalNodes>
            0 -1 55 5.0481297075748444e-03</internalNodes>
          <leafValues>
            1.4344808459281921e-01 -8.5473012924194336e-01</leafValues></_>
        <_>
          <internalNodes>
            0 -1 0 2.9384259134531021e-02</internalNodes>
          <leafValues>
            -2.9389813542366028e-01 3.0700972676277161e-01</leafValues></_>
        <_>
          <internalNodes>
            0 -1 74 -1.8428679555654526e-02</internalNodes>
          <leafValues>
            -6.9133770465850830e-01 1.2748545408248901e-01</leafValues></_>
        <_>
          <internalNodes>
            0 -1 67 -4.4569469988346100e-02</internalNodes>
          <leafValues>
            -6.0502892732620239e-01 1.2789544463157654e-01</leafValues></_>
        <_>
          <internalNodes>
            0 -1 109 3.6527980118989944e-03</internalNodes>
          <leafValues>
            -2.3305712640285492e-01 4.0628695487976074e-01</leafValues></_>
        <_>
          <internalNodes>
            0 -1 104 -7.8477002680301666e-03</internalNodes>
          <leafValues>
            6.4190632104873657e-01 -2.0619472861289978e-01</leafValues></_>
        <_>
          <internalNodes>
            0 -1 127 -1.1020838283002377e-02</internalNodes>
          <leafValues>
            4.8995736241340637e-01 -1.4049918949604034e-01</leafValues></_>
        <_>
          <internalNodes>
            0 -1 126 -1.0466358624398708e-02</internalNodes>
          <leafValues>
            4.8725661635398865e-01 -2.1874904632568359e-01</leafValues></_>
        <_>
          <internalNodes>
            0 -1 31 -9.6316859126091003e-03</internalNodes>
          <leafValues>
            4.4087165594100952e-01 -1.5814471244812012e-01</leafValues></_>
        <_>
          <internalNodes>
            0 -1 38 -5.4313428699970245e-03</internalNodes>
          <leafValues>
            4.8579362034797668e-01 -1.9448208808898926e-01</leafValues></_>
        <_>
          <internalNodes>
            0 -1 29 -6.9240378215909004e-03</internalNodes>
          <leafValues>
            -5.9326362609863281e-01 1.4531284570693970e-01</leafValues></_></weakClassifiers></_>
    <!-- stage 8 -->
    <_>
      <maxWeakCount>21</maxWeakCount>
      <stageThreshold>-1.0346518754959106e+00</stageThreshold>
      <weakClassifiers>
        <_>
          <internalNodes>
            0 -1 4 1.1620131321251392e-02</internalNodes>
          <leafValues>
            -2.3010130226612091e-01 5.2712792158126831e-01</leafValues></_>
        <_>
          <internalNodes>
            0 -1 112 3.0847815796732903e-03</internalNodes>
          <leafValues>
            -3.6320745944976807e-01 3.9293619990348816e-01</leafValues></_>
        <_>
          <internalNodes>
            0 -1 98 1.2964909896254539e-02</internalNodes>
          <leafValues>
            -2.3480594158172607e-01 5.1643663644790649e-01</leafValues></_>
        <_>
          <internalNodes>
            0 -1 105 -1.1054802685976028e-02</internalNodes>
          <leafValues>
            4.9718603491783142e-01 -2.3306722939014435e-01</leafValues></_>
        <_>
          <internalNodes>
            0 -1 16 3.6481078714132309e-02</internalNodes>
          <leafValues>
            -3.8976332545280457e-01 3.8532650470733643e-01</leafValues></_>
        <_>
          <internalNodes>
            0 -1 57 -3.5269927233457565e-02</internalNodes>
          <leafValues>
            6.8699538707733154e-01 -1.6632387042045593e-01</leafValues></_>
        <_>
          <internalNodes>
            0 -1 64 4.0387034416198730e-02</internalNodes>
          <leafValues>
            -2.0660567283630371e-01 5.0092738866806030e-01</leafValues></_>
        <_>
          <internalNodes>
            0 -1 24 6.2763810157775879e-02</internalNodes>
          <leafValues>
            -4.9429538846015930e-01 1.8222260475158691e-01</leafValues></_>
        <_>
          <internalNodes>
            0 -1 107 3.3019490074366331e-03</internalNodes>
          <leafValues>
            -1.9361047446727753e-01 3.9410406351089478e-01</leafValues></_>
        <_>
          <internalNodes>
            0 -1 32 1.5876868739724159e-02</internalNodes>
          <leafValues>
            -2.1427024900913239e-01 4.5268252491950989e-01</leafValues></_>
        <_>
          <internalNodes>
            0 -1 78 1.1464002542197704e-02</internalNodes>
          <leafValues>
            1.0547079890966415e-01 -7.6410967111587524e-01</leafValues></_>
        <_>
          <internalNodes>
            0 -1 94 2.5525167584419250e-02</internalNodes>
          <leafValues>
            -1.1756312102079391e-01 6.3574379682540894e-01</leafValues></_>
        <_>
          <internalNodes>
            0 -1 33 3.3493813127279282e-02</internalNodes>
          <leafValues>
            -9.1896764934062958e-02 7.8588223457336426e-01</leafValues></_>
        <_>
          <internalNodes>
            0 -1 6 1.5421800315380096e-02</internalNodes>
          <leafValues>
            -1.5050843358039856e-01 4.9615663290023804e-01</leafValues></_>
        <_>
          <internalNodes>
            0 -1 43 9.6065342426300049e-02</internalNodes>
          <leafValues>
            1.1901012808084488e-01 -7.9913926124572754e-01</leafValues></_>
        <_>
          <internalNodes>
            0 -1 118 4.8192285001277924e-02</internalNodes>
          <leafValues>
            -1.7183402180671692e-01 5.6014245748519897e-01</leafValues></_>
        <_>
          <internalNodes>
            0 -1 62 -1.6536604613065720e-02</internalNodes>
          <leafValues>
            5.8618533611297607e-01 -1.2074762582778931e-01</leafValues></_>
        <_>
          <internalNodes>
            0 -1 48 -3.4735072404146194e-02</internalNodes>
          <leafValues>
            -6.3683813810348511e-01 1.3305905461311340e-01</leafValues></_>
        <_>
          <internalNodes>
            0 -1 123 1.6851930413395166e-03</internalNodes>
          <leafValues>
            1.4125744998455048e-01 -4.9672412872314453e-01</leafValues></_>
        <_>
          <internalNodes>
            0 -1 124 -1.3466962263919413e-04</internalNodes>
          <leafValues>
            -3.4581768512725830e-01 2.1480569243431091e-01</leafValues></_>
        <_>
          <internalNodes>
            0 -1 69 -5.9638462960720062e-02</internalNodes>
          <leafValues>
            -6.6062813997268677e-01 1.1697305738925934e-01</leafValues></_></weakClassifiers></_>
    <!-- stage 9 -->
    <_>
      <maxWeakCount>23</maxWeakCount>
      <stageThreshold>-1.0097751617431641e+00</stageThreshold>
      <weakClassifiers>
        <_>
          <internalNodes>
            0 -1 51 5.4224416613578796e-02</internalNodes>
          <leafValues>
            1.7751479521393776e-02 6.4985162019729614e-01</leafValues></_>
        <_>
          <internalNodes>
            0 -1 42 3.5434328019618988e-02</internalNodes>
          <leafValues>
            -9.3818888068199158e-02 7.0331686735153198e-01</leafValues></_>
        <_>
          <internalNodes>
            0 -1 66 -1.1969588696956635e-02</internalNodes>
          <leafValues>
            2.2807723283767700e-01 -3.8753372430801392e-01</leafValues></_>
        <_>
          <internalNodes>
            0 -1 121 9.2502962797880173e-03</internalNodes>
          <leafValues>
            -2.1332128345966339e-01 4.3440258502960205e-01</leafValues></_>
        <_>
          <internalNodes>
            0 -1 95 3.2541953027248383e-02</internalNodes>
          <leafValues>
            -1.2224815785884857e-01 6.5904444456100464e-01</leafValues></_>
        <_>
          <internalNodes>
            0 -1 14 -3.0748564749956131e-02</internalNodes>
          <leafValues>
            4.7432899475097656e-01 -2.3703514039516449e-01</leafValues></_>
        <_>
          <internalNodes>
            0 -1 125 -1.3988343998789787e-02</internalNodes>
          <leafValues>
            2.7629470825195312e-01 -2.9712292551994324e-01</leafValues></_>
        <_>
          <internalNodes>
            0 -1 84 -1.6280284035019577e-04</internalNodes>
          <leafValues>
            -4.5494771003723145e-01 1.7781247198581696e-01</leafValues></_>
        <_>
          <internalNodes>
            0 -1 86 -2.8173264116048813e-02</internalNodes>
          <leafValues>
            5.4136133193969727e-01 -1.6804283857345581e-01</leafValues></_>
        <_>
          <internalNodes>
            0 -1 91 1.6943318769335747e-02</internalNodes>
          <leafValues>
            -1.4520977437496185e-01 6.1398351192474365e-01</leafValues></_>
        <_>
          <internalNodes>
            0 -1 1 3.3672787249088287e-02</internalNodes>
          <leafValues>
            -1.7370490729808807e-01 4.4770091772079468e-01</leafValues></_>
        <_>
          <internalNodes>
            0 -1 100 -3.3595308195799589e-03</internalNodes>
          <leafValues>
            -6.9558227062225342e-01 9.8913438618183136e-02</leafValues></_>
        <_>
          <internalNodes>
            0 -1 101 -4.9091619439423084e-03</internalNodes>
          <leafValues>
            5.9303051233291626e-01 -1.3441857695579529e-01</leafValues></_>
        <_>
          <internalNodes>
            0 -1 70 4.1741542518138885e-03</internalNodes>
          <leafValues>
            -1.8174271285533905e-01 4.4369840621948242e-01</leafValues></_>
        <_>
          <internalNodes>
            0 -1 61 5.0187977030873299e-03</internalNodes>
          <leafValues>
            -1.9996909797191620e-01 4.2871952056884766e-01</leafValues></_>
        <_>
          <internalNodes>
            0 -1 81 3.0649197287857533e-03</internalNodes>
          <leafValues>
            9.9667742848396301e-02 -8.8681602478027344e-01</leafValues></_>
        <_>
          <internalNodes>
            0 -1 116 2.3414525203406811e-03</internalNodes>
          <leafValues>
            -2.6224479079246521e-01 2.7928119897842407e-01</leafValues></_>
        <_>
          <internalNodes>
            0 -1 71 -1.4065047726035118e-02</internalNodes>
          <leafValues>
            4.9203512072563171e-01 -1.4359484612941742e-01</leafValues></_>
        <_>
          <internalNodes>
            0 -1 28 -3.8374464493244886e-03</internalNodes>
          <leafValues>
            -6.1893266439437866e-01 1.2779505550861359e-01</leafValues></_>
        <_>
          <internalNodes>
            0 -1 27 3.6411113105714321e-03</internalNodes>
          <leafValues>
            1.1996893584728241e-01 -6.8750309944152832e-01</leafValues></_>
        <_>
          <internalNodes>
            0 -1 103 1.3109471648931503e-02</internalNodes>
          <leafValues>
            -1.3360178470611572e-01 5.8706736564636230e-01</leafValues></_>
        <_>
          <internalNodes>
            0 -1 41 5.9350151568651199e-03</internalNodes>
          <leafValues>
            -1.8382655084133148e-01 4.1447317600250244e-01</leafValues></_>
        <_>
          <internalNodes>
            0 -1 115 -1.4455402560997754e-04</internalNodes>
          <leafValues>
            -4.0909221768379211e-01 1.9709290564060211e-01</leafValues></_></weakClassifiers></_></stages>
  <features>
    <_>
      <rects>
        <_>
          0 6 6 8 -1.</_>
        <_>
          3 6 3 8 2.</_></rects>
      <tilted>0</tilted></_>
    <_>
      <rects>
        <_>
          0 7 6 7 -1.</_>
        <_>
          3 7 3 7 2.</_></rects>
      <tilted>0</tilted></_>
    <_>
      <rects>
        <_>
          1 4 18 12 -1.</_>
        <_>
          7 4 6 12 3.</_></rects>
      <tilted>0</tilted></_>
    <_>
      <rects>
        <_>
          1 4 18 14 -1.</_>
        <_>
          7 4 6 14 3.</_></rects>
      <tilted>0</tilted></_>
    <_>
      <rects>
        <_>
          1 5 18 1 -1.</_>
        <_>
          7 5 6 1 3.</_></rects>
      <tilted>0</tilted></_>
    <_>
      <rects>
        <_>
          1 5 18 2 -1.</_>
        <_>
          7 5 6 2 3.</_></rects>
      <tilted>0</tilted></_>
    <_>
      <rects>
        <_>
          1 8 7 3 -1.</_>
        <_>
          1 9 7 1 3.</_></rects>
      <tilted>0</tilted></_>
    <_>
      <rects>
        <_>
          1 14 18 1 -1.</_>
        <_>
          7 14 6 1 3.</_></rects>
      <tilted>0</tilted></_>
    <_>
      <rects>
        <_>
          2 2 16 15 -1.</_>
        <_>
          2 7 16 5 3.</_></rects>
      <tilted>0</tilted></_>
    <_>
      <rects>
        <_>
          2 13 18 3 -1.</_>
        <_>
          8 13 6 3 3.</_></rects>
      <tilted>0</tilted></_>
    <_>
      <rects>
        <_>
          3 2 13 15 -1.</_>
        <_>
          3 7 13 5 3.</_></rects>
      <tilted>0</tilted></_>
    <_>
      <rects>
        <_>
          3 5 8 4 -1.</_>
        <_>
          3 5 4 2 2.</_>
        <_>
          7 7 4 2 2.</_></rects>
      <tilted>0</tilted></_>
    <_>
      <rects>
        <_>
          3 6 7 6 -1.</_>
        <_>
          3 8 7 2 3.</_></rects>
      <tilted>0</tilted></_>
    <_>
      <rects>
        <_>
          3 8 4 6 -1.</_>
        <_>
          3 10 4 2 3.</_></rects>
      <tilted>0</tilted></_>
    <_>
      <rects>
        <_>
          3 8 14 4 -1.</_>
        <_>
          3 8 7 2 2.</_>
        <_>
          10 10 7 2 2.</_></rects>
      <tilted>0</tilted></_>
    <_>
      <rects>
        <_>
          3 12 8 4 -1.</_>
        <_>
          3 12 4 2 2.</_>
        <_>
          7 14 4 2 2.</_></rects>
      <tilted>0</tilted></_>
    <_>
      <rects>
        <_>
          3 13 15 3 -1.</_>
        <_>
          8 13 5 3 3.</_></rects>
      <tilted>0</tilted></_>
    <_>
      <rects>
        <_>
          4 0 6 18 -1.</_>
        <_>
          4 6 6 6 3.</_></rects>
      <tilted>0</tilted></_>
    <_>
      <rects>
        <_>
          4 3 13 15 -1.</_>
        <_>
          4 8 13 5 3.</_></rects>
      <tilted>0</tilted></_>
    <_>
      <rects>
        <_>
          4 5 9 2 -1.</_>
        <_>
          7 5 3 2 3.</_></rects>
      <tilted>0</tilted></_>
    <_>
      <rects>
        <_>
          4 7 2 6 -1.</_>
        <_>
          4 9 2 2 3.</_></rects>
      <tilted>0</tilted></_>
    <_>
      <rects>
        <_>
          4 7 5 6 -1.</_>
        <_>
          4 9 5 2 3.</_></rects>
      <tilted>0</tilted></_>
    <_>
      <rects>
        <_>
          4 8 6 6 -1.</_>
        <_>
          4 10 6 2 3.</_></rects>
      <tilted>0</tilted></_>
    <_>
      <rects>
        <_>
          4 13 9 2 -1.</_>
        <_>
          7 13 3 2 3.</_></rects>
      <tilted>0</tilted></_>
    <_>
      <rects>
        <_>
          5 0 13 18 -1.</_>
        <_>
          5 6 13 6 3.</_></rects>
      <tilted>0</tilted></_>
    <_>
      <rects>
        <_>
          5 7 3 6 -1.</_>
        <_>
          5 9 3 2 3.</_></rects>
      <tilted>0</tilted></_>
    <_>
      <rects>
        <_>
          5 7 4 6 -1.</_>
        <_>
          5 9 4 2 3.</_></rects>
      <tilted>0</tilted></_>
    <_>
      <rects>
        <_>
          5 9 3 2 -1.</_>
        <_>
          6 9 1 2 3.</_></rects>
      <tilted>0</tilted></_>
    <_>
      <rects>
        <_>
          5 9 3 3 -1.</_>
        <_>
          6 9 1 3 3.</_></rects>
      <tilted>0</tilted></_>
    <_>
      <rects>
        <_>
          5 9 6 3 -1.</_>
        <_>
          7 9 2 3 3.</_></rects>
      <tilted>0</tilted></_>
    <_>
      <rects>
        <_>
          5 9 10 4 -1.</_>
        <_>
          5 9 5 2 2.</_>
        <_>
          10 11 5 2 2.</_></rects>
      <tilted>0</tilted></_>
    <_>
      <rects>
        <_>
          5 10 8 2 -1.</_>
        <_>
          5 10 4 1 2.</_>
        <_>
          9 11 4 1 2.</_></rects>
      <tilted>0</tilted></_>
    <_>
      <rects>
        <_>
          6 5 6 2 -1.</_>
        <_>
          8 5 2 2 3.</_></rects>
      <tilted>0</tilted></_>
    <_>
      <rects>
        <_>
          6 5 8 4 -1.</_>
        <_>
          6 5 4 2 2.</_>
        <_>
          10 7 4 2 2.</_></rects>
      <tilted>0</tilted></_>
    <_>
      <rects>
        <_>
          6 7 4 6 -1.</_>
        <_>
          6 9 4 2 3.</_></rects>
      <tilted>0</tilted></_>
    <_>
      <rects>
        <_>
          6 8 8 2 -1.</_>
        <_>
          6 8 4 1 2.</_>
        <_>
          10 9 4 1 2.</_></rects>
      <tilted>0</tilted></_>
    <_>
      <rects>
        <_>
          6 8 5 8 -1.</_>
        <_>
          6 12 5 4 2.</_></rects>
      <tilted>0</tilted></_>
    <_>
      <rects>
        <_>
          6 9 3 3 -1.</_>
        <_>
          6 10 3 1 3.</_></rects>
      <tilted>0</tilted></_>
    <_>
      <rects>
        <_>
          6 10 3 3 -1.</_>
        <_>
          6 11 3 1 3.</_></rects>
      <tilted>0</tilted></_>
    <_>
      <rects>
        <_>
          6 11 8 4 -1.</_>
        <_>
          6 11 4 2 2.</_>
        <_>
          10 13 4 2 2.</_></rects>
      <tilted>0</tilted></_>
    <_>
      <rects>
        <_>
          6 13 6 4 -1.</_>
        <_>
          8 13 2 4 3.</_></rects>
      <tilted>0</tilted></_>
    <_>
      <rects>
        <_>
          7 4 3 4 -1.</_>
        <_>
          8 4 1 4 3.</_></rects>
      <tilted>0</tilted></_>
    <_>
      <rects>
        <_>
          7 4 6 4 -1.</_>
        <_>
          9 4 2 4 3.</_></rects>
      <tilted>0</tilted></_>
    <_>
      <rects>
        <_>
          7 4 4 12 -1.</_>
        <_>
          7 8 4 4 3.</_></rects>
      <tilted>0</tilted></_>
    <_>
      <rects>
        <_>
          7 4 6 3 -1.</_>
        <_>
          7 5 6 1 3.</_></rects>
      <tilted>0</tilted></_>
    <_>
      <rects>
        <_>
          7 4 6 12 -1.</_>
        <_>
          7 8 6 4 3.</_></rects>
      <tilted>0</tilted></_>
    <_>
      <rects>
        <_>
          7 5 3 2 -1.</_>
        <_>
          8 5 1 2 3.</_></rects>
      <tilted>0</tilted></_>
    <_>
      <rects>
        <_>
          7 5 9 2 -1.</_>
        <_>
          10 5 3 2 3.</_></rects>
      <tilted>0</tilted></_>
    <_>
      <rects>
        <_>
          7 5 4 15 -1.</_>
        <_>
          7 10 4 5 3.</_></rects>
      <tilted>0</tilted></_>
    <_>
      <rects>
        <_>
          7 5 10 4 -1.</_>
        <_>
          7 5 5 2 2.</_>
        <_>
          12 7 5 2 2.</_></rects>
      <tilted>0</tilted></_>
    <_>
      <rects>
        <_>
          7 5 6 12 -1.</_>
        <_>
          7 9 6 4 3.</_></rects>
      <tilted>0</tilted></_>
    <_>
      <rects>
        <_>
          7 7 5 6 -1.</_>
        <_>
          7 9 5 2 3.</_></rects>
      <tilted>0</tilted></_>
    <_>
      <rects>
        <_>
          7 7 6 6 -1.</_>
        <_>
          7 9 6 2 3.</_></rects>
      <tilted>0</tilted></_>
    <_>
      <rects>
        <_>
          7 8 3 3 -1.</_>
        <_>
          8 8 1 3 3.</_></rects>
      <tilted>0</tilted></_>
    <_>
      <rects>
        <_>
          7 8 2 3 -1.</_>
        <_>
          7 9 2 1 3.</_></rects>
      <tilted>0</tilted></_>
    <_>
      <rects>
        <_>
          7 9 3 2 -1.</_>
        <_>
          8 9 1 2 3.</_></rects>
      <tilted>0</tilted></_>
    <_>
      <rects>
        <_>
          7 9 3 3 -1.</_>
        <_>
          7 10 3 1 3.</_></rects>
      <tilted>0</tilted></_>
    <_>
      <rects>
        <_>
          7 10 6 6 -1.</_>
        <_>
          7 10 3 3 2.</_>
        <_>
          10 13 3 3 2.</_></rects>
      <tilted>0</tilted></_>
    <_>
      <rects>
        <_>
          7 10 8 2 -1.</_>
        <_>
          7 10 4 1 2.</_>
        <_>
          11 11 4 1 2.</_></rects>
      <tilted>0</tilted></_>
    <_>
      <rects>
        <_>
          7 11 8 4 -1.</_>
        <_>
          7 11 4 2 2.</_>
        <_>
          11 13 4 2 2.</_></rects>
      <tilted>0</tilted></_>
    <_>
      <rects>
        <_>
          7 12 6 6 -1.</_>
        <_>
          7 14 6 2 3.</_></rects>
      <tilted>0</tilted></_>
    <_>
      <rects>
        <_>
          7 13 3 3 -1.</_>
        <_>
          8 13 1 3 3.</_></rects>
      <tilted>0</tilted></_>
    <_>
      <rects>
        <_>
          7 13 6 3 -1.</_>
        <_>
          9 13 2 3 3.</_></rects>
      <tilted>0</tilted></_>
    <_>
      <rects>
        <_>
          7 13 9 2 -1.</_>
        <_>
          10 13 3 2 3.</_></rects>
      <tilted>0</tilted></_>
    <_>
      <rects>
        <_>
          7 13 9 3 -1.</_>
        <_>
          10 13 3 3 3.</_></rects>
      <tilted>0</tilted></_>
    <_>
      <rects>
        <_>
          7 13 6 3 -1.</_>
        <_>
          7 14 6 1 3.</_></rects>
      <tilted>0</tilted></_>
    <_>
      <rects>
        <_>
          7 14 6 4 -1.</_>
        <_>
          7 16 6 2 2.</_></rects>
      <tilted>0</tilted></_>
    <_>
      <rects>
        <_>
          8 0 5 12 -1.</_>
        <_>
          8 4 5 4 3.</_></rects>
      <tilted>0</tilted></_>
    <_>
      <rects>
        <_>
          8 1 5 6 -1.</_>
        <_>
          8 4 5 3 2.</_></rects>
      <tilted>0</tilted></_>
    <_>
      <rects>
        <_>
          8 1 5 12 -1.</_>
        <_>
          8 5 5 4 3.</_></rects>
      <tilted>0</tilted></_>
    <_>
      <rects>
        <_>
          8 4 3 3 -1.</_>
        <_>
          9 4 1 3 3.</_></rects>
      <tilted>0</tilted></_>
    <_>
      <rects>
        <_>
          8 4 4 6 -1.</_>
        <_>
          8 4 2 3 2.</_>
        <_>
          10 7 2 3 2.</_></rects>
      <tilted>0</tilted></_>
    <_>
      <rects>
        <_>
          8 4 6 4 -1.</_>
        <_>
          10 4 2 4 3.</_></rects>
      <tilted>0</tilted></_>
    <_>
      <rects>
        <_>
          8 5 4 6 -1.</_>
        <_>
          8 7 4 2 3.</_></rects>
      <tilted>0</tilted></_>
    <_>
      <rects>
        <_>
          8 5 4 8 -1.</_>
        <_>
          8 9 4 4 2.</_></rects>
      <tilted>0</tilted></_>
    <_>
      <rects>
        <_>
          8 6 4 2 -1.</_>
        <_>
          8 7 4 1 2.</_></rects>
      <tilted>0</tilted></_>
    <_>
      <rects>
        <_>
          8 7 4 8 -1.</_>
        <_>
          8 11 4 4 2.</_></rects>
      <tilted>0</tilted></_>
    <_>
      <rects>
        <_>
          8 7 12 6 -1.</_>
        <_>
          12 7 4 6 3.</_></rects>
      <tilted>0</tilted></_>
    <_>
      <rects>
        <_>
          8 8 4 4 -1.</_>
        <_>
          10 8 2 4 2.</_></rects>
      <tilted>0</tilted></_>
    <_>
      <rects>
        <_>
          8 8 3 3 -1.</_>
        <_>
          8 9 3 1 3.</_></rects>
      <tilted>0</tilted></_>
    <_>
      <rects>
        <_>
          8 8 5 12 -1.</_>
        <_>
          8 12 5 4 3.</_></rects>
      <tilted>0</tilted></_>
    <_>
      <rects>
        <_>
          8 9 3 1 -1.</_>
        <_>
          9 9 1 1 3.</_></rects>
      <tilted>0</tilted></_>
    <_>
      <rects>
        <_>
          8 9 3 2 -1.</_>
        <_>
          9 9 1 2 3.</_></rects>
      <tilted>0</tilted></_>
    <_>
      <rects>
        <_>
          8 9 2 3 -1.</_>
        <_>
          8 10 2 1 3.</_></rects>
      <tilted>0</tilted></_>
    <_>
      <rects>
        <_>
          8 10 3 1 -1.</_>
        <_>
          9 10 1 1 3.</_></rects>
      <tilted>0</tilted></_>
    <_>
      <rects>
        <_>
          8 10 4 6 -1.</_>
        <_>
          8 10 2 3 2.</_>
        <_>
          10 13 2 3 2.</_></rects>
      <tilted>0</tilted></_>
    <_>
      <rects>
        <_>
          8 10 6 6 -1.</_>
        <_>
          8 10 3 3 2.</_>
        <_>
          11 13 3 3 2.</_></rects>
      <tilted>0</tilted></_>
    <_>
      <rects>
        <_>
          8 11 4 3 -1.</_>
        <_>
          8 12 4 1 3.</_></rects>
      <tilted>0</tilted></_>
    <_>
      <rects>
        <_>
          8 12 6 5 -1.</_>
        <_>
          10 12 2 5 3.</_></rects>
      <tilted>0</tilted></_>
    <_>
      <rects>
        <_>
          8 12 4 6 -1.</_>
        <_>
          8 14 4 2 3.</_></rects>
      <tilted>0</tilted></_>
    <_>
      <rects>
        <_>
          8 13 4 2 -1.</_>
        <_>
          10 13 2 2 2.</_></rects>
      <tilted>0</tilted></_>
    <_>
      <rects>
        <_>
          8 13 4 3 -1.</_>
        <_>
          10 13 2 3 2.</_></rects>
      <tilted>0</tilted></_>
    <_>
      <rects>
        <_>
          8 13 4 3 -1.</_>
        <_>
          8 14 4 1 3.</_></rects>
      <tilted>0</tilted></_>
    <_>
      <rects>
        <_>
          8 13 5 3 -1.</_>
        <_>
          8 14 5 1 3.</_></rects>
      <tilted>0</tilted></_>
    <_>
      <rects>
        <_>
          9 5 6 2 -1.</_>
        <_>
          11 5 2 2 3.</_></rects>
      <tilted>0</tilted></_>
    <_>
      <rects>
        <_>
          9 5 6 3 -1.</_>
        <_>
          11 5 2 3 3.</_></rects>
      <tilted>0</tilted></_>
    <_>
      <rects>
        <_>
          9 7 3 6 -1.</_>
        <_>
          9 9 3 2 3.</_></rects>
      <tilted>0</tilted></_>
    <_>
      <rects>
        <_>
          9 8 2 3 -1.</_>
        <_>
          9 9 2 1 3.</_></rects>
      <tilted>0</tilted></_>
    <_>
      <rects>
        <_>
          9 8 3 3 -1.</_>
        <_>
          9 9 3 1 3.</_></rects>
      <tilted>0</tilted></_>
    <_>
      <rects>
        <_>
          9 9 3 2 -1.</_>
        <_>
          10 9 1 2 3.</_></rects>
      <tilted>0</tilted></_>
    <_>
      <rects>
        <_>
          9 9 3 3 -1.</_>
        <_>
          10 9 1 3 3.</_></rects>
      <tilted>0</tilted></_>
    <_>
      <rects>
        <_>
          9 9 2 2 -1.</_>
        <_>
          9 10 2 1 2.</_></rects>
      <tilted>0</tilted></_>
    <_>
      <rects>
        <_>
          9 9 2 3 -1.</_>
        <_>
          9 10 2 1 3.</_></rects>
      <tilted>0</tilted></_>
    <_>
      <rects>
        <_>
          9 10 3 3 -1.</_>
        <_>
          9 11 3 1 3.</_></rects>
      <tilted>0</tilted></_>
    <_>
      <rects>
        <_>
          9 11 2 2 -1.</_>
        <_>
          9 12 2 1 2.</_></rects>
      <tilted>0</tilted></_>
    <_>
      <rects>
        <_>
          9 11 3 2 -1.</_>
        <_>
          9 12 3 1 2.</_></rects>
      <tilted>0</tilted></_>
    <_>
      <rects>
        <_>
          9 12 6 4 -1.</_>
        <_>
          11 12 2 4 3.</_></rects>
      <tilted>0</tilted></_>
    <_>
      <rects>
        <_>
          10 5 3 2 -1.</_>
        <_>
          11 5 1 2 3.</_></rects>
      <tilted>0</tilted></_>
    <_>
      <rects>
        <_>
          10 5 6 4 -1.</_>
        <_>
          10 5 3 2 2.</_>
        <_>
          13 7 3 2 2.</_></rects>
      <tilted>0</tilted></_>
    <_>
      <rects>
        <_>
          10 8 1 3 -1.</_>
        <_>
          10 9 1 1 3.</_></rects>
      <tilted>0</tilted></_>
    <_>
      <rects>
        <_>
          10 8 3 3 -1.</_>
        <_>
          11 8 1 3 3.</_></rects>
      <tilted>0</tilted></_>
    <_>
      <rects>
        <_>
          10 8 6 6 -1.</_>
        <_>
          10 10 6 2 3.</_></rects>
      <tilted>0</tilted></_>
    <_>
      <rects>
        <_>
          10 9 1 3 -1.</_>
        <_>
          10 10 1 1 3.</_></rects>
      <tilted>0</tilted></_>
    <_>
      <rects>
        <_>
          10 9 3 3 -1.</_>
        <_>
          11 9 1 3 3.</_></rects>
      <tilted>0</tilted></_>
    <_>
      <rects>
        <_>
          10 9 4 3 -1.</_>
        <_>
          10 10 4 1 3.</_></rects>
      <tilted>0</tilted></_>
    <_>
      <rects>
        <_>
          10 10 3 1 -1.</_>
        <_>
          11 10 1 1 3.</_></rects>
      <tilted>0</tilted></_>
    <_>
      <rects>
        <_>
          10 14 3 2 -1.</_>
        <_>
          11 14 1 2 3.</_></rects>
      <tilted>0</tilted></_>
    <_>
      <rects>
        <_>
          10 14 3 3 -1.</_>
        <_>
          11 14 1 3 3.</_></rects>
      <tilted>0</tilted></_>
    <_>
      <rects>
        <_>
          11 7 3 6 -1.</_>
        <_>
          11 9 3 2 3.</_></rects>
      <tilted>0</tilted></_>
    <_>
      <rects>
        <_>
          11 7 6 6 -1.</_>
        <_>
          11 9 6 2 3.</_></rects>
      <tilted>0</tilted></_>
    <_>
      <rects>
        <_>
          11 8 3 3 -1.</_>
        <_>
          12 8 1 3 3.</_></rects>
      <tilted>0</tilted></_>
    <_>
      <rects>
        <_>
          11 9 2 3 -1.</_>
        <_>
          11 10 2 1 3.</_></rects>
      <tilted>0</tilted></_>
    <_>
      <rects>
        <_>
          12 9 1 3 -1.</_>
        <_>
          12 10 1 1 3.</_></rects>
      <tilted>0</tilted></_>
    <_>
      <rects>
        <_>
          12 9 3 2 -1.</_>
        <_>
          13 9 1 2 3.</_></rects>
      <tilted>0</tilted></_>
    <_>
      <rects>
        <_>
          12 10 3 1 -1.</_>
        <_>
          13 10 1 1 3.</_></rects>
      <tilted>0</tilted></_>
    <_>
      <rects>
        <_>
          14 6 6 8 -1.</_>
        <_>
          17 6 3 8 2.</_></rects>
      <tilted>0</tilted></_>
    <_>
      <rects>
        <_>
          14 7 3 6 -1.</_>
        <_>
          14 9 3 2 3.</_></rects>
      <tilted>0</tilted></_>
    <_>
      <rects>
        <_>
          16 9 4 3 -1.</_>
        <_>
          18 9 2 3 2.</_></rects>
      <tilted>0</tilted></_></features></cascade>
</opencv_storage>
